
\data\
ngram 1=12

\1-grams:
-0.6103325	</s>
-99	<s>
-1.092253	eight
-1.092253	five
-1.154401	four
-1.171434	nine
-1.106976	one
-1.092253	seven
-1.171434	six
-1.092253	three
-1.037895	two
-1.247155	zero

\end\
